tree
version=v4
num_class=1
num_tree_per_iteration=1
label_index=0
max_feature_idx=0
objective=binary sigmoid:1
feature_names=sim
feature_infos=[-0.07263067364692688:1.0000002384185791]
tree_sizes=2073 2204 2314 2316 2736 2301 2534 2526 2422 2531 2429 2424 2869 2540 2439 2436 2439 2542 2550 2554 2562

Tree=0
num_leaves=19
num_cat=0
split_feature=0 0 0 0 0 0 0 0 0 0 0 0 0 0 0 0 0 0
split_gain=1129.16 24.0428 15.0752 3.82386 3.29573 1.41307 1.34956 0.910827 0.788672 0.591504 0.484272 0.478814 0.339766 0.310754 0.45067 0.187779 0.657226 5.68434e-14
threshold=0.58813628554344188 0.65133607387542736 0.54203885793685924 0.73389464616775524 0.45161361992359167 0.67120540142059337 0.46710659563541418 0.51745352149009716 0.63069292902946483 0.61194419860839855 0.77149564027786266 0.71356800198555004 0.68874359130859386 0.41687354445457464 0.43227526545524603 0.49951495230197912 0.48336216807365423 0.87701725959777843
decision_type=2 2 2 2 2 2 2 2 2 2 2 2 2 2 2 2 2 2
left_child=2 8 4 5 13 -3 -6 15 9 -2 -5 12 -7 -1 -15 16 -8 -12
right_child=1 3 -4 10 6 11 7 -9 -10 -11 17 -13 -14 14 -16 -17 -18 -19
leaf_value=-1.7083832584306906 -1.2351802509776348 -1.0294398129545677 -1.5393821843403135 -1.0359368794184536 -1.6137426569400795 -1.1121474690398401 -1.7083832584306906 -1.6374028073127322 -1.264755438943451 -1.176029875046003 -0.99857874725110685 -1.1405396494870237 -1.0661791768872579 -1.6689496744762693 -1.7083832584306906 -1.7083832584306906 -1.6492328824990587 -0.99857874725110707
leaf_weight=134.96674072742462 3.3812127113342267 3.2403288483619717 5.917122244834899 5.3535867929458609 4.2265158891677883 3.5220965743064863 4.2265158891677874 4.2265158891677848 3.3812127113342285 3.3812127113342285 6.3397738337516767 2.8176772594451904 2.95856112241745 5.071819067001341 6.762425422668457 4.2265158891677856 3.3812127113342285 3.522096574306488
leaf_count=958 24 23 42 38 30 25 30 30 24 24 45 20 21 36 48 30 24 25
internal_value=-1.58795 -1.09357 -1.69624 -1.04542 -1.7018 -1.08631 -1.66402 -1.67725 -1.22532 -1.20561 -1.01172 -1.10612 -1.09116 -1.70702 -1.69148 -1.69148 -1.68209 -0.998579
internal_weight=210.903 37.8978 173.005 27.7541 167.088 12.5387 20.2873 16.0608 10.1436 6.76243 15.2155 9.29833 6.48066 146.801 11.8342 11.8342 7.60773 9.86187
internal_count=1497 269 1228 197 1186 89 144 114 72 48 108 66 46 1042 84 84 54 70
is_linear=0
shrinkage=1


Tree=1
num_leaves=20
num_cat=0
split_feature=0 0 0 0 0 0 0 0 0 0 0 0 0 0 0 0 0 0 0
split_gain=719.502 13.8278 7.97195 3.32311 1.27743 1.25367 0.877574 0.589637 0.321366 0.454015 0.313635 0.224619 0.190699 0.648502 0.170799 0.676602 0.135698 0.0241255 2.84217e-14
threshold=0.58813628554344188 0.54203885793685924 0.65133607387542736 0.45161361992359167 0.7245675027370454 0.46710659563541418 0.51745352149009716 0.6771911382675172 0.41687354445457464 0.43227526545524603 0.63069292902946483 0.61194419860839855 0.49951495230197912 0.48336216807365423 0.75733336806297313 0.78670793771743786 0.70382097363471996 0.74233683943748485 0.39465707540512091
decision_type=2 2 2 2 2 2 2 2 2 2 2 2 2 2 2 2 2 2 2
left_child=1 3 10 8 7 -5 12 -4 18 -10 11 -2 13 -7 17 -16 -9 -6 -1
right_child=2 -3 4 5 14 6 -8 16 9 -11 -12 -13 -14 -15 15 -17 -18 -19 -20
leaf_value=-0.11811585188680587 0.25290713949640836 0.042268231712973704 0.34788712176881609 -0.02363794146458786 0.37092944609136769 -0.11811585188680591 -0.046085628579518187 0.32106009163335308 -0.077205399708813086 -0.11811585188680587 0.23580258714926675 0.28539845501003203 -0.11811585188680584 -0.05759319355305919 0.32294159005748946 0.37144212022858025 0.29449715924979397 0.38177449102099176 -0.11811585188680587
leaf_weight=116.60538041591644 4.1886420249938947 6.1080042421817771 7.2536477893590909 4.1547153890132931 3.9620755016803759 3.8955026865005475 4.0892645716667166 3.9580933898687363 4.803179204463957 6.2328042984008789 4.120500683784484 4.3243392705917358 3.8955026865005493 3.2453552484512329 3.9177400618791571 10.820756629109381 3.7407773733139038 4.2531483173370361 7.7910053730010977
leaf_count=898 24 42 38 30 21 30 30 21 36 48 24 24 30 24 20 55 20 22 60
internal_value=-0.00187814 -0.105309 0.327245 -0.111135 0.350174 -0.0722921 -0.0856565 0.327429 -0.116665 -0.10031 0.25845 0.269412 -0.100319 -0.0906097 0.36499 0.35855 0.308154 0.376544 -0.118116
internal_weight=211.36 160.821 50.5397 154.713 37.9062 19.2803 15.1256 14.9525 135.432 11.036 12.6335 8.51298 11.0364 7.14086 22.9537 14.7385 7.69887 8.21522 124.396
internal_count=1497 1228 269 1186 197 144 114 79 1042 84 72 48 84 54 118 75 41 43 958
is_linear=0
shrinkage=0.1


Tree=2
num_leaves=21
num_cat=0
split_feature=0 0 0 0 0 0 0 0 0 0 0 0 0 0 0 0 0 0 0 0
split_gain=531.785 12.9653 4.98012 1.9974 1.54843 0.833403 0.412712 0.657426 0.680296 0.28791 0.240402 0.197831 0.410102 0.244351 0.187985 0.135177 0.11296 0.0144953 2.84217e-14 1.42109e-14
threshold=0.58813628554344188 0.51745352149009716 0.65133607387542736 0.41687354445457464 0.54203885793685924 0.77149564027786266 0.49951495230197912 0.46354806423187261 0.4747042059898377 0.43227526545524603 0.45161361992359167 0.67120540142059337 0.7245675027370454 0.74510189890861522 0.63069292902946483 0.61194419860839855 0.70382097363471996 0.79857960343360912 0.36369936168193823 0.87701725959777843
decision_type=2 2 2 2 2 2 2 2 2 2 2 2 2 2 2 2 2 2 2 2
left_child=1 3 14 18 -3 11 7 9 -9 -5 -11 -4 16 -14 15 -2 -13 -7 -1 -19
right_child=2 4 5 6 -6 17 -8 8 -10 10 -12 12 13 -15 -16 -17 -18 19 -20 -21
leaf_value=-0.11609761593464324 0.19888601641248274 -0.042872184554415882 0.27820416397116277 -0.073516762935192423 0.036968878718281174 0.2938410399166051 -0.11609761593464324 -0.020128805781626537 -0.07935503928316269 -0.11609761593464325 -0.078692369200681289 0.25098293514600611 0.28472637691788422 0.25439138445782294 0.18648160234992844 0.22249015547559237 0.23073885762078603 0.28722419314987396 -0.11609761593464324 0.28722419314987385
leaf_weight=96.499769568443298 4.7572056055068952 3.9629955589771253 5.1307493895292309 4.5529494881630006 6.2756365835666656 4.7142847180366507 3.5829122364521018 3.068895220756529 5.2695147693157196 5.7326595783233625 2.4535954892635345 7.7989660054445284 5.7558182775974256 4.9295798987150192 4.655208706855773 4.9514508247375488 4.2629183828830719 5.4466713666915876 17.914561182260513 5.6736160069704056
leaf_count=808 24 30 23 36 42 21 30 24 42 48 18 36 26 22 24 24 20 24 150 25
internal_value=-0.00267087 -0.102538 0.254087 -0.110534 0.00606536 0.270873 -0.0847204 -0.0793866 -0.0575572 -0.093675 -0.104886 0.260467 0.256466 0.270732 0.203003 0.210924 0.243828 0.289194 -0.116098 0.287224
internal_weight=207.39 149.313 58.0765 139.075 10.2386 43.7126 24.6605 21.0776 8.33841 12.7392 8.18626 27.878 22.7473 10.6854 14.3639 9.70866 12.0619 15.8346 114.414 11.1203
internal_count=1497 1228 269 1156 72 197 198 168 66 102 66 127 104 48 72 48 56 70 958 49
is_linear=0
shrinkage=0.1


Tree=3
num_leaves=21
num_cat=0
split_feature=0 0 0 0 0 0 0 0 0 0 0 0 0 0 0 0 0 0 0 0
split_gain=417.25 12.3046 3.95585 2.06863 1.25691 0.702834 0.417185 0.635078 0.620834 0.363709 0.288137 0.249937 0.137279 0.37642 0.136128 0.132522 0.187974 0.0996675 2.21361e-05 2.84217e-14
threshold=0.58813628554344188 0.51745352149009716 0.65133607387542736 0.41687354445457464 0.54203885793685924 0.73389464616775524 0.49951495230197912 0.46354806423187261 0.4747042059898377 0.71356800198555004 0.43227526545524603 0.45161361992359167 0.75733336806297313 0.78670793771743786 0.63069292902946483 0.67120540142059337 0.68874359130859386 0.61194419860839855 0.83855509757995617 0.40859612822532659
decision_type=2 2 2 2 2 2 2 2 2 2 2 2 2 2 2 2 2 2 2 2
left_child=1 3 14 19 -3 9 7 10 -9 15 -5 -12 -7 -14 17 -4 -17 -2 -15 -1
right_child=2 4 5 6 -6 12 -8 8 -10 -11 11 -13 13 18 -16 16 -18 -19 -20 -21
leaf_value=-0.11433312633314835 0.16402970843532749 -0.039812137250627613 0.23157455352347359 -0.069919496269916434 0.032465141121565753 0.24750948810092971 -0.11433312633314835 -0.018387081924759345 -0.075820500490226317 0.18723429773983158 -0.11433312633314835 -0.074963675143417258 0.2077406684036899 0.24021754120444344 0.15398196653589968 0.20038822461412403 0.22692854393359863 0.18347911752010698 0.2404824600200248 -0.11433312633314835
leaf_weight=102.41031037271023 5.1660346984863263 3.8470941781997663 5.5223311036825242 4.3207367062568718 6.4232098460197449 7.9458442479372051 3.2894103974103919 3.0259881019592267 4.9789303690195084 4.6361705660819998 5.2630566358566284 2.3248569667339325 4.8031077533960369 5.1028351485729209 5.0497151613235465 5.8396565914154035 4.9144111573696136 5.3772246837615967 8.2591283917427045 2.6315283179283133
leaf_count=934 24 30 23 36 42 33 30 24 42 20 48 18 20 21 24 25 21 24 34 24
internal_value=-0.00308979 -0.0999295 0.211131 -0.108364 0.00539121 0.225605 -0.0813412 -0.0758914 -0.0541097 0.211944 -0.090533 -0.102271 0.236546 0.231751 0.167483 0.218983 0.212517 0.173949 0.240381 -0.114333
internal_weight=201.132 138.515 62.6165 128.245 10.2703 47.0235 23.203 19.9136 8.00492 20.9126 11.9087 7.58791 26.1109 18.1651 15.593 16.2764 10.7541 10.5433 13.362 105.042
internal_count=1497 1228 269 1156 72 197 198 168 66 89 102 66 108 75 72 69 46 48 55 958
is_linear=0
shrinkage=0.1


Tree=4
num_leaves=25
num_cat=0
split_feature=0 0 0 0 0 0 0 0 0 0 0 0 0 0 0 0 0 0 0 0 0 0 0 0
split_gain=338.152 11.7004 3.523 2.14938 1.28039 2.99695 0.729806 0.422214 0.612532 1.33728 0.667282 0.28875 0.260056 0.182196 0.508608 0.436352 0.304484 0.109002 0.0816006 0.0127031 1.42404e-07 1.42109e-14 1.77636e-15 1.77636e-15
threshold=0.58813628554344188 0.51745352149009716 0.65133607387542736 0.41687354445457464 0.56238418817520153 0.54203885793685924 0.77149564027786266 0.49951495230197912 0.46354806423187261 0.4710096418857575 0.48336216807365423 0.43227526545524603 0.45161361992359167 0.71702671051025402 0.73818492889404308 0.69517165422439586 0.67120540142059337 0.63069292902946483 0.61194419860839855 0.79857960343360912 0.85599651932716381 0.1134353205561638 0.087827727198600783 0.061266930773854263
decision_type=2 2 2 2 2 2 2 2 2 2 2 2 2 2 2 2 2 2 2 2 2 2 2 2
left_child=1 3 17 21 5 -3 13 8 11 -10 -11 -5 -13 15 -15 16 -4 18 -2 -8 -21 22 23 -1
right_child=2 4 6 7 -6 -7 19 -9 9 10 -12 12 -14 14 -16 -17 -18 -19 -20 20 -22 -23 -24 -25
leaf_value=-0.11278458906450317 0.13923925464196923 -0.036904486346750684 0.20122103112097919 -0.066403373514418135 -0.052776696243047032 0.089642857336130435 0.21635696889104195 -0.11278458906450317 0.013256440797551059 -0.11423860450007202 -0.043936388524873811 -0.11278458906450316 -0.071331765522472834 0.15214738446203385 0.19291430867275675 0.21880437673009975 0.17062561528106843 0.13058157737911721 0.15637433935058828 0.21047606913557854 0.21045410508168763 -0.11278458906450317 -0.11278458906450313 -0.11278458906450313
leaf_weight=2.713632032275199 5.4594787359237689 3.7409220635890943 5.7077925205230766 4.1059341430664116 2.8086030185222626 3.7448040246963501 5.2184967845678356 3.015146702527999 2.2902614325284949 2.6131668537855148 2.793306291103363 4.8242347240447998 2.2052197158336639 4.8843836039304724 8.1947751045227033 4.8617619276046744 7.5624720901250839 5.3415945768356314 5.6610027551651001 4.9876130372285825 7.2321105301380157 88.745817944407463 2.4121173620223999 2.4121173620223999
leaf_count=27 24 30 23 36 18 24 21 30 18 24 24 48 18 20 33 20 31 24 24 20 29 883 24 24
internal_value=-0.0033298 -0.097449 0.18231 -0.106359 0.00479967 0.026402 0.195841 -0.0780419 -0.0724794 -0.0507867 -0.0779163 -0.0874733 -0.0997804 0.186686 0.17769 0.193175 0.183785 0.142322 0.147962 0.212227 0.210463 -0.112785 -0.112785 -0.112785
internal_weight=193.537 128.425 65.1115 118.131 10.2943 7.48573 48.6494 21.8473 18.8321 7.69673 5.40647 11.1354 7.02945 31.2112 13.0792 18.132 13.2703 16.4621 11.1205 17.4382 12.2197 96.2837 7.53787 5.12575
internal_count=1497 1228 269 1156 72 54 197 198 168 66 48 102 66 127 53 74 54 72 48 70 49 958 75 51
is_linear=0
shrinkage=0.1


Tree=5
num_leaves=21
num_cat=0
split_feature=0 0 0 0 0 0 0 0 0 0 0 0 0 0 0 0 0 0 0 0
split_gain=279.55 11.1247 3.32087 2.2338 0.82783 0.757123 0.426566 0.593478 1.12748 0.758348 0.486823 0.337337 0.159721 0.195739 0.12821 0.0923157 0.0707162 0.00657742 7.37582e-08 1.42109e-14
threshold=0.58813628554344188 0.51745352149009716 0.65133607387542736 0.41687354445457464 0.54203885793685924 0.7245675027370454 0.49951495230197912 0.45161361992359167 0.46710659563541418 0.48336216807365423 0.43227526545524603 0.67120540142059337 0.77149564027786266 0.74510189890861522 0.70382097363471996 0.63069292902946483 0.61194419860839855 0.79857960343360912 0.85599651932716381 0.40776823461055761
decision_type=2 2 2 2 2 2 2 2 2 2 2 2 2 2 2 2 2 2 2 2
left_child=1 3 15 19 -3 11 7 10 -9 -10 -5 -4 13 -7 -13 16 -2 -14 -19 -1
right_child=2 4 5 6 -6 12 -8 8 9 -11 -12 14 17 -15 -16 -17 -18 18 -20 -21
leaf_value=-0.111421024294386 0.12046068682105769 -0.034148264137640459 0.17970314807183563 -0.06296252406412535 0.025123257051318321 0.1875454352556129 -0.111421024294386 -0.0089830051576841301 -0.11338207538357187 -0.04091499977993257 -0.11142102429438597 0.15804708133277601 0.19373277346463644 0.16189464537334994 0.13800368394053106 0.11272313272400454 0.13614024420595103 0.18950752716516667 0.1894917151661086 -0.111421024294386
leaf_weight=85.37263298034668 5.6670928001403826 3.6438352614641172 5.7487538456916836 3.9077880978584343 6.6693358719348907 6.483768358826639 2.7598911523818961 3.7023823857307416 3.0986324697732925 2.7044093012809753 4.4158258438110352 8.9590803086757642 5.2426381856203106 5.4971956759691238 4.9572643637657157 5.5563029050827017 5.8412007093429565 4.9846725165843946 7.2277044951915741 2.7598911523818961
leaf_count=928 24 30 23 36 42 26 30 30 30 24 48 36 21 22 20 24 24 20 29 30
internal_value=-0.00347885 -0.0950774 0.16131 -0.104493 0.00418153 0.174518 -0.0748368 -0.0691736 -0.0521007 -0.07961 -0.0886706 0.159325 0.184667 0.175776 0.150907 0.123308 0.128419 0.19077 0.189498 -0.111421
internal_weight=185.2 119.035 66.1657 108.721 10.3132 49.1011 20.5889 17.829 9.50542 5.80304 8.32361 19.6651 29.436 11.981 13.9163 17.0646 11.5083 17.455 12.2124 88.1325
internal_count=1497 1228 269 1156 72 197 198 168 84 54 84 79 118 48 56 72 48 70 49 958
is_linear=0
shrinkage=0.1


Tree=6
num_leaves=23
num_cat=0
split_feature=0 0 0 0 0 0 0 0 0 0 0 0 0 0 0 0 0 0 0 0 0 0
split_gain=234.423 12.8066 3.65217 1.82936 1.45026 1.06725 0.759695 0.417921 0.496503 0.361199 0.591416 0.327381 0.271541 0.67021 0.171611 0.156085 0.107935 0.00366037 4.11996e-08 1.42109e-14 1.77636e-15 8.88178e-16
threshold=0.54203885793685924 0.59702295064926159 0.45161361992359167 0.7245675027370454 0.56238418817520153 0.46710659563541418 0.51745352149009716 0.41687354445457464 0.43227526545524603 0.65133607387542736 0.62054097652435314 0.67120540142059337 0.48336216807365423 0.49951495230197912 0.77149564027786266 0.74510189890861522 0.70382097363471996 0.79857960343360912 0.85599651932716381 0.37095433473587042 0.39465707540512091 0.38422946631908422
decision_type=2 2 2 2 2 2 2 2 2 2 2 2 2 2 2 2 2 2 2 2 2 2
left_child=2 4 7 9 -2 -4 12 19 -9 10 -3 -11 -7 -14 15 -5 -13 -16 -19 -1 21 -21
right_child=1 3 5 14 -6 6 -8 8 -10 11 -12 16 13 -15 17 -17 -18 18 -20 20 -22 -23
leaf_value=-0.11021681864665876 0.072630622956327592 0.14703768238446827 -0.0081393549793437794 0.1699137676266691 -0.0059615626716078953 -0.11195052022737491 -0.031542348925519124 -0.059594599690592456 -0.11021681864665872 0.16354514673297443 0.10596193912781421 0.14163432953588237 -0.038027871764117621 -0.11021681864665872 0.17723408556754072 0.14692453680801049 0.12329736543219579 0.1740555399229429 0.17404360713406358 -0.11021681864665878 -0.11021681864665873 -0.11021681864665869
leaf_weight=70.479652762413025 4.0093392133712751 5.8775176405906668 3.6788254827260962 6.442180663347246 5.6660990417003632 2.8377699404954893 3.5551967471837997 3.7254499197006217 4.0370206832885742 5.6875740438699749 8.6847458481788617 8.9945250004529935 2.6231440901756287 2.5231379270553589 5.161187186837199 5.4533362239599228 4.9913448095321646 4.8889076709747297 7.0887462943792343 3.0277655124664289 5.0462758541107178 2.0185103416442871
leaf_count=838 24 24 30 26 30 30 30 36 48 23 36 36 24 30 21 22 20 20 29 36 60 24
internal_value=-0.0035598 0.133753 -0.100287 0.150138 0.0266057 -0.0550409 -0.0699936 -0.108082 -0.0859216 0.134479 0.122541 0.143316 -0.0871155 -0.0734209 0.168603 0.159375 0.13509 0.175008 0.174048 -0.110217 -0.110217 -0.110217
internal_weight=176.498 72.9455 103.553 63.2701 9.67544 15.2181 11.5392 88.3347 7.76247 34.2357 14.5623 19.6734 7.98405 5.14628 29.0344 11.8955 13.9859 17.1388 11.9777 80.5722 10.0926 5.04628
internal_count=1497 311 1186 257 54 144 114 1042 84 139 60 79 84 54 118 48 56 70 49 958 120 60
is_linear=0
shrinkage=0.1


Tree=7
num_leaves=23
num_cat=0
split_feature=0 0 0 0 0 0 0 0 0 0 0 0 0 0 0 0 0 0 0 0 0 0
split_gain=198.931 10.9133 3.72635 1.91824 1.10999 0.981793 0.959425 1.26773 0.444334 0.505736 0.404093 0.48549 0.382028 0.325715 0.187063 0.13349 0.0949368 0.0021458 1.15832e-05 2.39965e-08 1.42109e-14 8.88178e-16
threshold=0.54203885793685924 0.59702295064926159 0.45161361992359167 0.7245675027370454 0.56238418817520153 0.52622538805007946 0.50974363088607799 0.46710659563541418 0.41687354445457464 0.43227526545524603 0.65133607387542736 0.63069292902946483 0.48336216807365423 0.67120540142059337 0.77149564027786266 0.74510189890861522 0.70382097363471996 0.79857960343360912 0.49549156427383428 0.85599651932716381 0.40054492652416235 0.40859612822532659
decision_type=2 2 2 2 2 2 2 2 2 2 2 2 2 2 2 2 2 2 2 2 2 2
left_child=2 4 8 10 -2 6 7 -4 20 -10 11 -3 -9 -12 15 -5 -15 -16 -14 -19 -1 -22
right_child=1 3 5 14 -6 -7 -8 12 9 -11 13 -13 18 16 17 -17 -18 19 -20 -21 21 -23
leaf_value=-0.10915058205323334 0.062599590197457436 0.12310360248214809 -0.0073703990080189784 0.15629493156261509 -0.0053787598775944306 -0.11543136811004689 0.016862886417934823 -0.11068715453406944 -0.056300034300990488 -0.10915058205323332 0.15088526448454539 0.086028843370731647 -0.061430936948898889 0.12841090923106779 0.16469725425485682 0.13482582560374679 0.11118132349698313 0.1622251713951389 -0.06108751302220683 0.16221591170497029 -0.10915058205323332 -0.1091505820532333
leaf_weight=69.893718883395195 4.1768953800201398 8.9592586755752546 3.6575479656457883 6.3095873892307299 5.6527661383152008 2.0846312195062628 2.3114295601844779 2.5955244451761246 3.5580165088176718 3.6867016553878784 5.5548616945743587 5.8306492567062369 1.9117255657911303 8.9313469231128675 5.006333380937579 5.3533694744110107 4.9819249659776679 4.7288946062326414 2.0197549760341644 6.8566589653491974 1.8433508276939385 1.843350827693939
leaf_count=910 24 36 30 26 30 18 24 30 36 48 23 24 18 36 21 22 20 20 24 29 24 24
internal_value=-0.0036031 0.121455 -0.09843 0.136857 0.0235071 -0.0518993 -0.0413007 -0.0545011 -0.106824 -0.0831947 0.120948 0.108488 -0.0809119 0.130414 0.156145 0.14644 0.122242 0.162967 -0.0612545 0.16222 -0.109151 -0.109151
internal_weight=167.748 72.3425 95.4058 62.5129 9.82966 14.5806 12.496 10.1846 80.8251 7.24472 34.258 14.7899 6.527 19.4681 28.2548 11.663 13.9133 16.5919 3.93148 11.5856 73.5804 3.6867
internal_count=1497 311 1186 257 54 144 126 102 1042 84 139 60 72 79 118 48 56 70 42 49 958 48
is_linear=0
shrinkage=0.1


Tree=8
num_leaves=22
num_cat=0
split_feature=0 0 0 0 0 0 0 0 0 0 0 0 0 0 0 0 0 0 0 0 0
split_gain=169.878 9.46098 3.82128 2.02486 0.857839 0.628475 2.06233 0.493038 0.422111 0.388994 0.668557 1.11887 0.641114 0.349406 0.323183 0.221553 0.145017 0.452277 0.13669 0.148762 3.03176e-05
threshold=0.54203885793685924 0.59702295064926159 0.41687354445457464 0.73389464616775524 0.56238418817520153 0.52622538805007946 0.51323729753494274 0.65133607387542736 0.62054097652435314 0.49951495230197912 0.46354806423187261 0.4710096418857575 0.48336216807365423 0.71356800198555004 0.43227526545524603 0.45161361992359167 0.75733336806297313 0.78670793771743786 0.67120540142059337 0.68874359130859386 0.83855509757995617
decision_type=2 2 2 2 2 2 2 2 2 2 2 2 2 2 2 2 2 2 2 2 2
left_child=2 4 -1 7 -2 6 9 8 -3 10 14 -12 -13 18 -4 -16 -5 -18 -9 -20 -19
right_child=1 3 5 16 -6 -7 -8 13 -10 -11 11 12 -14 -15 15 -17 17 20 19 -21 -22
leaf_value=-0.10820436762883821 0.054362065588453523 0.11744847301673066 -0.053081457892143726 0.15934381509187351 -0.0048518119366330135 -0.1137490630848051 0.045956528647464481 0.14062888318401848 0.083114268492999049 -0.10879145784237426 0.024515799128602602 -0.10907869078147632 -0.030689991090811383 0.097136766154779564 -0.10820436762883819 -0.066542608555790847 0.11624395149632794 0.15257763703561231 0.11073694498039775 0.13382847992742675 0.15289909166162524
leaf_weight=67.130720183253288 4.3205598592758161 5.9894405007362357 3.4045592844486325 7.7073702961206463 5.6407037079334259 1.9127140939235676 1.8743247091770161 5.3732583522796693 8.9038354754447919 1.7809472233057011 2.1253250688314429 1.82716928422451 2.4321378171443939 4.9059260636568061 3.3635433912277222 2.0571026355028152 4.6581190079450634 4.7426339685916883 6.1329771578311902 5.1180998086929321 7.6933825314044952
leaf_count=958 24 24 36 33 30 18 18 23 36 24 18 24 24 20 48 18 20 21 25 21 34
internal_value=-0.00361808 0.111212 -0.0966052 0.125917 0.0208314 -0.0591295 -0.0535916 0.110911 0.096922 -0.0645732 -0.0593956 -0.0347465 -0.0643174 0.120587 -0.0772281 -0.092394 0.147956 0.142821 0.127508 0.121241 0.152777
internal_weight=159.095 71.1863 87.9085 61.225 9.96126 20.7778 18.8651 36.4235 14.8933 16.9908 15.2098 6.38463 4.25931 21.5303 8.82521 5.42065 24.8015 17.0941 16.6243 11.2511 12.436
internal_count=1497 311 1186 257 54 228 210 149 60 192 168 66 48 89 102 66 108 75 69 46 55
is_linear=0
shrinkage=0.1


Tree=9
num_leaves=23
num_cat=0
split_feature=0 0 0 0 0 0 0 0 0 0 0 0 0 0 0 0 0 0 0 0 0 0
split_gain=145.735 8.29615 3.93485 2.14231 0.668067 0.606849 1.7808 0.442787 0.388181 0.624437 0.968263 0.62402 0.382141 0.341798 0.319282 0.241381 0.234102 0.140186 0.0909604 0.0029007 7.60318e-08 1.42109e-14
threshold=0.54203885793685924 0.59702295064926159 0.41687354445457464 0.7245675027370454 0.56238418817520153 0.52622538805007946 0.51323729753494274 0.65133607387542736 0.49951495230197912 0.46354806423187261 0.4710096418857575 0.48336216807365423 0.63069292902946483 0.67120540142059337 0.43227526545524603 0.77149564027786266 0.45161361992359167 0.74510189890861522 0.70382097363471996 0.79857960343360912 0.85599651932716381 0.40859612822532659
decision_type=2 2 2 2 2 2 2 2 2 2 2 2 2 2 2 2 2 2 2 2 2 2
left_child=2 4 21 7 -2 6 8 12 9 14 -11 -12 -3 -9 -4 17 -16 -5 -15 -17 -21 -1
right_child=1 3 5 15 -6 -7 -8 13 -10 10 11 -13 -14 18 16 19 -18 -19 -20 20 -22 -23
leaf_value=-0.10736297287474346 0.047488513043996546 0.1001329002312271 -0.049943079584305793 0.13726904176881474 -0.0043755593133248134 -0.11227079296036512 0.039884037674022016 0.13208700328418371 -0.10788536554226245 0.021660655057687495 -0.10814086716653151 -0.028322139783544472 0.067452534960889085 0.10799412709865104 -0.10736297287474342 0.14841443174467864 -0.063098824031720221 0.11451502029619845 0.090889790446988028 0.14541655491444103 0.14539926069310991 -0.10736297287474346
leaf_weight=59.661021888256073 4.4442393779754621 8.9601681232452375 3.264147251844415 5.8876772075891513 5.6297965943813324 1.7523124963045109 1.9399596601724614 5.159687519073489 1.6243092566728581 2.1628042906522742 1.6668949574232099 2.3750296533107758 5.9568178653717032 8.6155378967523557 3.0660910606384277 4.6099684685468665 1.9577042609453199 5.0129920542240143 4.8646809905767432 4.2955269664525968 6.2276235818862915 1.5330455303192128
leaf_count=934 24 36 36 26 30 18 18 23 24 18 24 24 24 36 48 21 18 22 20 20 29 24
internal_value=-0.00361643 0.102435 -0.0948231 0.116624 0.0185047 -0.0560855 -0.0506331 0.0999233 -0.0615284 -0.0563328 -0.0323427 -0.0612395 0.0870826 0.110199 -0.0742929 0.13815 -0.0901138 0.126805 0.101822 0.146323 0.145406 -0.107363
internal_weight=150.668 69.6647 81.0033 59.5907 10.074 19.8093 18.0569 33.5569 16.117 14.4927 6.20473 4.04192 14.917 18.6399 8.28794 26.0338 5.0238 10.9007 13.4802 15.1331 10.5232 61.1941
internal_count=1497 311 1186 257 54 228 210 139 192 168 66 48 60 79 102 118 66 48 56 70 49 958
is_linear=0
shrinkage=0.1


Tree=10
num_leaves=22
num_cat=0
split_feature=0 0 0 0 0 0 0 0 0 0 0 0 0 0 0 0 0 0 0 0 0
split_gain=125.444 7.33439 4.04204 2.24388 0.523479 0.518916 0.47965 0.515275 0.580428 1.99801 0.746176 0.348477 0.332352 0.314194 0.245916 0.178104 0.14975 0.148707 0.00186547 4.87829e-08 7.10543e-15
threshold=0.54203885793685924 0.59702295064926159 0.41687354445457464 0.73389464616775524 0.56238418817520153 0.65133607387542736 0.51745352149009716 0.49951495230197912 0.46354806423187261 0.46710659563541418 0.48336216807365423 0.71356800198555004 0.63069292902946483 0.43227526545524603 0.45161361992359167 0.77149564027786266 0.67120540142059337 0.68874359130859386 0.79857960343360912 0.85599651932716381 0.40859612822532659
decision_type=2 2 2 2 2 2 2 2 2 2 2 2 2 2 2 2 2 2 2 2 2
left_child=2 4 20 5 -2 12 7 8 13 -10 -11 16 -3 -4 -15 -5 -7 -18 -17 -20 -1
right_child=1 3 6 15 -6 11 -8 -9 9 10 -12 -13 -14 14 -16 18 17 -19 19 -21 -22
leaf_value=-0.10661341304004868 0.041680251271111676 0.090897738568638475 -0.046890210321912089 0.12150773752108841 -0.0039452945790952251 0.12480260833833901 -0.017145089356471476 -0.10785379679408678 0.064467948479117007 -0.10850931233172011 -0.026091052690242329 0.079380795614164279 0.060412487081009048 -0.10661341304004866 -0.059727985538212881 0.1417438387025963 0.093052102657941643 0.11667781734709536 0.13926996380765769 0.13925569593604076 -0.10661341304004868
leaf_weight=54.343659162521362 4.5511018037796003 8.887089014053343 3.1358639001846331 8.1728173643350619 5.6199387609958649 4.9268365949392345 3.0997056663036338 1.981783054769038 1.6317880153656004 2.0838056355714798 2.3231335133314133 4.7233217954635611 5.9842293262481681 2.7928218841552734 1.8662273883819578 4.3572147488594046 5.8837164938449842 4.8687296956777573 4.049259200692175 5.8704949170351028 1.3964109420776356
leaf_count=934 24 36 36 38 30 23 30 30 12 30 24 20 24 48 18 21 25 21 20 29 24
internal_value=-0.00359845 0.0947695 -0.0930587 0.108566 0.0164702 0.092837 -0.0531149 -0.0601647 -0.0533328 -0.0300605 -0.0650622 0.103192 0.0786305 -0.0713619 -0.087833 0.13328 0.110365 0.10375 0.140019 0.139262 -0.106613
internal_weight=142.55 67.8947 74.6552 57.7237 10.171 35.2739 18.9151 15.8154 13.8336 6.03873 4.40694 20.4026 14.8713 7.79491 4.65905 22.4498 15.6793 10.7524 14.277 9.91975 55.7401
internal_count=1497 311 1186 257 54 149 228 198 168 66 54 89 60 102 66 108 69 46 70 49 958
is_linear=0
shrinkage=0.1


Tree=11
num_leaves=22
num_cat=0
split_feature=0 0 0 0 0 0 0 0 0 0 0 0 0 0 0 0 0 0 0 0 0
split_gain=108.237 6.51793 4.14067 2.32991 0.635519 1.5595 0.446463 0.412231 0.357157 0.300139 0.272764 0.264083 2.12184 0.350419 0.307797 0.256863 0.151532 0.0882401 0.00122389 0.00057549 3.2024e-08
threshold=0.54203885793685924 0.59702295064926159 0.41687354445457464 0.7245675027370454 0.52622538805007946 0.51323729753494274 0.65133607387542736 0.56238418817520153 0.67120540142059337 0.62054097652435314 0.77149564027786266 0.46710659563541418 0.46354806423187261 0.48336216807365423 0.43227526545524603 0.45161361992359167 0.74510189890861522 0.70382097363471996 0.79857960343360912 0.49549156427383428 0.85599651932716381
decision_type=2 2 2 2 2 2 2 2 2 2 2 2 2 2 2 2 2 2 2 2 2
left_child=2 7 -1 6 5 11 9 -2 -8 -3 16 12 14 -13 -4 -16 -5 -10 -12 -15 -20
right_child=1 3 4 10 -6 -7 8 -9 17 -11 18 13 -14 19 15 -17 -18 -19 20 -21 -22
leaf_value=-0.10594462662148114 0.036722235596799574 0.088821362321756511 -0.043928719423089603 0.12434744254271034 -0.11078122949948617 0.039874948745655718 0.11845972330203119 -0.003556718081822736 0.092474992031910896 0.059685921834063252 0.13623258446304667 -0.10764053647901897 0.055445955301333609 -0.053281079134014468 -0.1059446266214811 -0.05643044730354007 0.099675079683312864 0.075252550254749584 0.1341646079797334 -0.055805935769586923 0.13415266846137683
leaf_weight=50.737815052270889 4.6437385082244855 5.8550366163253775 3.0188195407390648 5.4011639207601565 1.5812779515981663 1.9372411519289006 4.684192597866061 5.6110331118106842 8.169879809021948 8.9259122014045698 4.0936918705701819 1.8999448567628849 1.7034235596656797 1.7068970650434496 2.542186975479126 1.7822214066982267 4.6174568235874176 4.678548350930213 3.7960370630025846 1.9161626324057577 5.50331050157547
leaf_count=958 24 24 36 26 18 18 23 30 36 36 21 30 12 18 48 18 22 20 20 30 29
internal_value=-0.00356661 0.0879506 -0.0912996 0.101434 -0.0502199 -0.0444184 0.0840289 0.0146831 0.0948216 0.0712271 0.125456 -0.0556264 -0.045107 -0.072857 -0.0684325 -0.0855383 0.112976 0.0862037 0.134792 -0.0546164 0.134158
internal_weight=134.806 65.98 68.826 55.7252 18.0882 16.5069 32.3136 10.2548 17.5326 14.7809 23.4117 14.5697 9.04665 5.523 7.34323 4.32441 10.0186 12.8484 13.393 3.62306 9.29935
internal_count=1497 311 1186 257 228 210 139 54 79 60 118 192 114 78 102 66 48 56 70 48 49
is_linear=0
shrinkage=0.1


Tree=12
num_leaves=26
num_cat=0
split_feature=0 0 0 0 0 0 0 0 0 0 0 0 0 0 0 0 0 0 0 0 0 0 0 0 0
split_gain=93.5435 6.05912 4.22877 1.74458 1.07405 0.596974 0.435894 0.547965 0.508407 1.37265 0.735984 0.350451 0.311189 0.300027 0.266814 0.201679 0.160176 0.150856 0.000816249 2.12665e-08 7.10543e-15 1.77636e-15 8.88178e-16 8.88178e-16 8.88178e-16
threshold=0.54203885793685924 0.65133607387542736 0.41687354445457464 0.58813628554344188 0.73389464616775524 0.55186894536018383 0.51745352149009716 0.49951495230197912 0.46354806423187261 0.46710659563541418 0.48336216807365423 0.71356800198555004 0.61825400590896618 0.43227526545524603 0.45161361992359167 0.77149564027786266 0.67120540142059337 0.68874359130859386 0.79857960343360912 0.85599651932716381 0.33723044395446783 0.38162550330162054 0.35326924920082098 0.40859612822532659 0.37227019667625433
decision_type=2 2 2 2 2 2 2 2 2 2 2 2 2 2 2 2 2 2 2 2 2 2 2 2 2
left_child=2 3 20 5 11 -2 7 8 13 -10 -11 16 -5 -4 -15 -6 -3 -18 -17 -20 -1 22 -22 -23 -24
right_child=1 4 6 12 15 -7 -8 -9 9 10 -12 -13 -14 14 -16 18 17 -19 19 -21 21 23 24 -25 -26
leaf_value=-0.10534703340571774 0.032455146756933173 0.11283245504683548 -0.041064701228642295 0.076437297092675716 0.1095910191946774 -0.024271221265033519 -0.012507575434839231 -0.10694568298096614 0.048038545927413606 -0.10686590742318183 -0.019534706006909652 0.065062647000406301 0.049390402242924375 -0.1053470334057177 -0.053208755222690335 0.13162226333401805 0.079026664138973302 0.10352922291491549 0.1298751002015136 0.12986502812254208 -0.10534703340571779 -0.10534703340571772 -0.10534703340571772 -0.10534703340571766 -0.10534703340571766
leaf_weight=35.460602641105652 3.5432150065898922 4.4388006180524853 2.9121585488319415 7.2384514510631588 7.4155254215002087 3.894045889377594 2.9654559195041648 1.7565396353602398 1.765880227088928 1.7309655323624613 2.1807786673307419 4.4988141208887091 10.317143887281416 2.3126479983329773 1.7052220255136488 3.8270860612392417 5.5807530879974347 4.5705392509698868 3.5423183441162092 5.1354260295629501 2.0235669985413534 3.1798909977078438 3.1798909977078438 1.1563239991664884 1.1563239991664884
leaf_count=736 18 23 36 30 38 24 30 30 12 30 24 20 42 48 18 21 25 21 20 29 42 66 66 24 24
internal_value=-0.00352688 0.0817859 -0.0895329 0.0433459 0.106414 0.00275401 -0.0474128 -0.0546189 -0.0473286 -0.0251429 -0.0581792 0.0894634 0.0605423 -0.0655048 -0.0832191 0.122657 0.0969873 0.0900587 0.130406 0.129869 -0.105347 -0.105347 -0.105347 -0.105347 -0.105347
internal_weight=127.488 64.0021 63.4862 24.9929 39.0093 7.43726 17.3296 14.3642 12.6077 5.67762 3.91174 19.0889 17.5556 6.93003 4.01787 19.9204 14.5901 10.1513 12.5048 8.67774 46.1566 10.696 6.35978 4.33621 4.33621
internal_count=1497 311 1186 114 197 42 228 198 168 66 54 89 72 102 66 108 69 46 70 49 958 222 132 90 90
is_linear=0
shrinkage=0.1


Tree=13
num_leaves=23
num_cat=0
split_feature=0 0 0 0 0 0 0 0 0 0 0 0 0 0 0 0 0 0 0 0 0 0
split_gain=80.9287 5.70861 4.30953 1.43491 1.11553 0.658293 2.42203 0.536693 0.462003 1.15315 0.708615 0.34041 0.326193 0.290882 0.275645 0.261845 0.219029 0.167339 0.139094 0.000551867 1.43644e-08 7.10543e-15
threshold=0.54203885793685924 0.65133607387542736 0.41687354445457464 0.59702295064926159 0.73389464616775524 0.52622538805007946 0.51745352149009716 0.49951495230197912 0.46354806423187261 0.46710659563541418 0.48336216807365423 0.56238418817520153 0.71356800198555004 0.43227526545524603 0.45161361992359167 0.63069292902946483 0.77149564027786266 0.67120540142059337 0.68874359130859386 0.79857960343360912 0.85599651932716381 0.36751160025596624
decision_type=2 2 2 2 2 2 2 2 2 2 2 2 2 2 2 2 2 2 2 2 2 2
left_child=2 3 21 11 12 6 7 8 13 -10 -11 -2 17 -4 -15 -5 -6 -3 -19 -18 -21 -1
right_child=1 4 5 15 16 -7 -8 -9 9 10 -12 -13 -14 14 -16 -17 19 18 -20 20 -22 -23
leaf_value=-0.10481239797305042 0.030353142315467249 0.10775486217917428 -0.038304043586793124 0.070621483644439639 0.10433125354852704 -0.10953068804684192 0.081750873942537841 -0.10624501381945217 0.041865294946408185 -0.10617417022773795 -0.017873418482165133 -0.0060125665159739099 0.059846735946559863 -0.10481239797305036 -0.050067074481482933 0.043364739425338063 0.12772571476233716 0.073195476703668466 0.097126153849138155 0.12623646610686443 0.12622788038308999 -0.10481239797305042
leaf_weight=36.183954209089279 4.763681888580324 4.195828631520274 2.815066874027254 8.556082069873808 7.0305459797382381 1.4299644827842701 1.5073328018188465 1.5993289053440083 1.8205111026763914 1.5759252235293391 2.1469796597957611 5.6000405251979828 4.4067613780498496 2.1026995182037358 1.6347638815641401 5.9932991266250601 3.5630297362804404 5.430809408426283 4.3939587324857712 3.2928024977445585 4.7736506313085556 5.7824236750602713
leaf_count=826 24 23 36 36 38 18 12 30 12 30 24 30 20 48 18 24 21 25 21 20 29 132
internal_value=-0.0034779 0.0761612 -0.0877398 0.0391386 0.101031 -0.0446633 -0.0385618 -0.0518037 -0.0446055 -0.0233575 -0.0552516 0.0107029 0.0835785 -0.0625812 -0.0808668 0.0593937 0.118265 0.0910375 0.0838981 0.126689 0.126231 -0.104812
internal_weight=120.599 62.0005 58.599 24.9131 37.0874 16.6326 15.2026 13.6953 12.0959 5.54342 3.7229 10.3637 18.4274 6.55253 3.73746 14.5494 18.66 14.0206 9.82477 11.6295 8.06645 41.9664
internal_count=1497 311 1186 114 197 228 210 198 168 66 54 54 89 102 66 60 108 69 46 70 49 958
is_linear=0
shrinkage=0.1


Tree=14
num_leaves=22
num_cat=0
split_feature=0 0 0 0 0 0 0 0 0 0 0 0 0 0 0 0 0 0 0 0 0
split_gain=70.09 5.35994 4.36395 1.28986 1.17029 0.431244 0.348512 0.52417 0.417702 0.970239 0.680475 0.289032 0.280409 0.283243 0.239538 0.371305 0.187722 0.0886002 0.000377435 9.81614e-09 4.44089e-16
threshold=0.54203885793685924 0.65133607387542736 0.41687354445457464 0.58813628554344188 0.77149564027786266 0.55186894536018383 0.51745352149009716 0.49951495230197912 0.46354806423187261 0.46710659563541418 0.48336216807365423 0.61825400590896618 0.43227526545524603 0.45161361992359167 0.7245675027370454 0.67120540142059337 0.74510189890861522 0.70382097363471996 0.79857960343360912 0.85599651932716381 0.44263772666454321
decision_type=2 2 2 2 2 2 2 2 2 2 2 2 2 2 2 2 2 2 2 2 2
left_child=2 3 -1 5 14 -2 7 8 12 -10 -11 -5 -4 20 15 -3 -16 -17 -6 -20 -14
right_child=1 4 6 11 18 -7 -8 -9 9 10 -12 -13 13 -15 16 17 -18 -19 19 -21 -22
leaf_value=-0.10433353006201025 0.025359433639642454 0.10310235141249127 -0.035652171304214747 0.065803688444182815 0.12440391915558294 -0.022647330806203132 -0.010725696580704113 -0.1056186407651991 0.036658748548071093 -0.10555562024672829 -0.01633153855106553 0.039560884347959693 -0.10433353006201013 -0.047010664516040183 0.11086557693095644 0.074334679698306802 0.081363686806625479 0.056367529964605617 0.12312499383359024 0.12311762027037548 -0.10433353006201014
leaf_weight=38.138142369687557 3.6444729566574123 3.9589989930391338 2.7267733812332136 7.139414548873904 3.3055767416954023 3.8457048833370209 2.9005108326673499 1.4552765563130368 1.8684323430061338 1.4338854029774668 2.1163876354694366 10.182765483856199 0.95544406771659873 1.5703881829977033 4.6881826072931272 7.4402970075607282 3.9945603758096695 4.3487571179866791 3.0508378148078918 4.4228350073099136 0.95544406771659851
leaf_count=958 18 23 36 30 21 24 30 30 12 30 24 42 24 18 26 36 22 20 20 29 24
internal_value=-0.00342751 0.070982 -0.0859512 0.0353842 0.0960676 0.000711174 -0.0420865 -0.0490397 -0.0419579 -0.0216701 -0.0523674 0.050377 -0.0596661 -0.0784754 0.0839577 0.0766052 0.097293 0.0677069 0.123514 0.123121 -0.104334
internal_weight=114.143 60.0224 54.1207 24.8124 35.21 7.49018 15.9825 13.082 11.6268 5.41871 3.55027 17.3222 6.20805 3.48128 24.4308 15.7481 8.68274 11.7891 10.7792 7.47367 1.91089
internal_count=1497 311 1186 114 197 42 228 198 168 66 54 72 102 66 127 79 48 56 70 49 48
is_linear=0
shrinkage=0.1


Tree=15
num_leaves=22
num_cat=0
split_feature=0 0 0 0 0 0 0 0 0 0 0 0 0 0 0 0 0 0 0 0 0
split_gain=60.8016 6.14433 3.04847 1.4826 1.22362 0.751429 0.706291 0.510393 0.375736 0.81698 0.651663 0.268705 0.289512 0.236205 0.23401 0.365586 0.178963 0.080601 0.000260669 6.74987e-09 7.10543e-15
threshold=0.51745352149009716 0.65133607387542736 0.41687354445457464 0.58813628554344188 0.77149564027786266 0.54877892136573803 0.54203885793685924 0.49951495230197912 0.46354806423187261 0.46710659563541418 0.48336216807365423 0.43227526545524603 0.45161361992359167 0.61825400590896618 0.7245675027370454 0.67120540142059337 0.74510189890861522 0.70382097363471996 0.79857960343360912 0.85599651932716381 0.39822725951671606
decision_type=2 2 2 2 2 2 2 2 2 2 2 2 2 2 2 2 2 2 2 2 2
left_child=2 3 20 5 14 6 -2 8 11 -10 -11 -4 -13 -5 15 -3 -16 -17 -6 -20 -1
right_child=1 4 7 13 18 -7 -8 -9 9 10 -12 12 -14 -15 16 17 -18 -19 19 -21 -22
leaf_value=-0.10390417523570611 -0.0097361544159868824 0.09877979205633769 -0.033113785957264906 0.059621246633185444 0.12155133817905169 -0.030008223379554222 0.063272590683805641 -0.10505800478300609 0.032224765994811819 -0.10500184223697578 -0.014903966223406407 -0.10390417523570604 -0.04404540880865826 0.035824567197053306 0.10622485940011189 0.06918866456915132 0.076676444518054804 0.051838750265435302 0.1204460303277045 0.12043966914251412 -0.10390417523570611
leaf_weight=32.691340565681458 2.8770684599876422 3.7309201955795315 2.6465538740158063 7.0941423475742367 3.0575663745403272 5.0230704545974731 2.4563421607017517 1.3234569579362858 1.9105730652809141 1.303926542401314 2.0887129157781601 1.7358233928680422 1.5116494148969648 10.123503863811491 4.4177791774272901 7.2067763358354551 3.8239122778177261 4.2605673521757126 2.8187338262796402 4.0863234400749207 1.9528013169765461
leaf_count=904 30 23 36 30 21 30 12 30 12 30 24 48 18 42 26 36 22 20 20 29 54
internal_value=-0.0033626 0.0625834 -0.0886204 0.0276457 0.0914248 -0.0022523 0.0238886 -0.0463309 -0.0393896 -0.0200778 -0.0495322 -0.0567656 -0.0760408 0.0456295 0.0789469 0.071589 0.0925152 0.0627425 0.120783 0.120442 -0.103904
internal_weight=108.142 60.9767 47.1648 27.5741 33.4026 10.3565 5.33341 12.5207 11.1972 5.30321 3.39264 5.89403 3.24747 17.2176 23.44 15.1983 8.24169 11.4673 9.96262 6.90506 34.6441
internal_count=1497 341 1156 144 197 72 42 198 168 66 54 102 66 72 127 79 48 56 70 49 958
is_linear=0
shrinkage=0.1


Tree=16
num_leaves=22
num_cat=0
split_feature=0 0 0 0 0 0 0 0 0 0 0 0 0 0 0 0 0 0 0 0 0
split_gain=52.8403 5.65547 3.11153 1.28262 1.27332 0.4954 0.33628 0.688079 0.311492 0.552391 0.42544 0.255908 0.294371 0.240106 0.350421 0.207797 0.165811 0.15616 0.000225711 0.000181529 4.69305e-09
threshold=0.51745352149009716 0.65133607387542736 0.41687354445457464 0.59702295064926159 0.77149564027786266 0.49951495230197912 0.46354806423187261 0.46710659563541418 0.54877892136573803 0.54203885793685924 0.58012405037879955 0.43227526545524603 0.45161361992359167 0.73389464616775524 0.71356800198555004 0.63069292902946483 0.67120540142059337 0.68874359130859386 0.49072588980197912 0.79857960343360912 0.85599651932716381
decision_type=2 2 2 2 2 2 2 2 2 2 2 2 2 2 2 2 2 2 2 2 2
left_child=2 3 -1 8 13 6 11 -8 9 -2 -10 -4 -13 14 16 -5 -3 -18 -9 -6 -21
right_child=1 4 5 15 19 -7 7 18 10 -11 -12 12 -14 -15 -16 -17 17 -19 -20 20 -22
leaf_value=-0.10351888386065503 -0.0088311173224521981 0.094713672758721626 -0.03069268665845501 0.056324273287639483 0.11908636795854527 -0.10455564919463303 0.02841853723697256 -0.047547340408233559 -0.032366649841456201 0.05539579614422363 0.014032596777797328 -0.10351888386065494 -0.041177379787802698 0.091379329796855313 0.042415701785938495 0.031763917963343942 0.057262819033084035 0.083853129906868953 -0.045878447075648088 0.11812592454640261 0.11812039963247541
leaf_weight=31.458042040467262 2.8558950573205966 3.5133449435234168 2.5737302899360639 8.1844922304153425 2.8209061771631223 1.2029734924435604 1.9477128982543943 1.7013090401887896 4.0826456844806671 2.5213176012039185 3.8299550414085388 1.5761858224868777 1.4581190943717954 5.9910133183002463 4.0405606478452674 5.948617458343505 4.9714886397123319 3.9742267578840256 1.5475393831729887 2.598002701997757 3.7663077116012573
leaf_count=958 30 23 36 36 21 30 12 36 24 12 18 48 18 38 20 24 25 21 18 20 29
internal_value=-0.00329352 0.0582622 -0.0869888 0.0250152 0.0870453 -0.0436824 -0.0369048 -0.0185777 0.00271278 0.0212842 -0.00990791 -0.0538872 -0.073561 0.0742323 0.0680063 0.0459868 0.0763055 0.0690758 -0.0467524 0.118419 0.118123
internal_weight=102.564 59.0988 43.4656 27.4229 31.6759 12.0076 10.8046 5.19656 13.2898 5.37721 7.9126 5.60804 3.0343 22.4906 16.4996 14.1331 12.4591 8.94572 3.24885 9.18522 6.36431
internal_count=1497 341 1156 144 197 198 168 66 84 42 42 102 66 127 89 60 69 46 54 70 49
is_linear=0
shrinkage=0.1


Tree=17
num_leaves=23
num_cat=0
split_feature=0 0 0 0 0 0 0 0 0 0 0 0 0 0 0 0 0 0 0 0 0 0
split_gain=45.9256 5.17848 3.17143 1.31802 1.06021 0.256517 0.429114 0.436595 0.251224 0.434677 0.350561 0.242189 0.297763 0.23694 0.355017 0.235858 0.195604 0.179842 0.0750621 0.000127335 3.28887e-09 7.10543e-15
threshold=0.51745352149009716 0.65133607387542736 0.41687354445457464 0.77149564027786266 0.59702295064926159 0.49072588980197912 0.46354806423187261 0.46710659563541418 0.54877892136573803 0.54203885793685924 0.58012405037879955 0.43227526545524603 0.45161361992359167 0.7245675027370454 0.67120540142059337 0.49951495230197912 0.74510189890861522 0.63069292902946483 0.70382097363471996 0.79857960343360912 0.85599651932716381 0.28902478516101843
decision_type=2 2 2 2 2 2 2 2 2 2 2 2 2 2 2 2 2 2 2 2 2 2
left_child=2 4 21 13 8 6 11 -8 9 -2 -10 -4 -13 14 -3 -7 -15 -6 -16 -5 -21 -1
right_child=1 3 5 19 17 15 7 -9 10 -11 -12 12 -14 16 18 -17 -18 -19 -20 20 -22 -23
leaf_value=-0.1031728367797405 -0.0080045450795637046 0.090846682538730489 -0.028391679409191801 0.11694490912726388 0.051638445673890365 -0.042949232686587513 0.025129593101947009 -0.044734282123295166 -0.029678248171898125 0.048737561855799374 0.012588617308937015 -0.10317283677974043 -0.038412473121881119 0.09933569877752832 0.059868782340110838 -0.10410507664471676 0.066851432523554521 0.028683796932024559 0.042676638921035244 0.11610640182925885 0.11610157920772718 -0.10317283677974053
leaf_weight=16.930323868989948 2.8367773443460482 3.3073709905147615 2.5076701641082746 2.596789821982382 8.0421409606933576 1.4908192902803414 1.9805111289024355 1.6312122568488119 4.0111234188079834 2.5760571956634521 3.8416888117790222 1.4307315945625307 1.4093892574310301 3.9805318117141715 6.7639532387256605 1.0929661542177198 3.469214141368866 5.9296760559082022 4.0662854909896851 2.38955058157444 3.4640986993908882 11.624694205820559
leaf_count=568 30 23 36 21 36 18 12 36 24 12 18 48 18 26 36 30 22 24 20 20 29 390
internal_value=-0.00321384 0.0542489 -0.085292 0.0828819 0.0226721 -0.0410595 -0.0330542 -0.00642399 0.00242446 0.019 -0.0090008 -0.0510393 -0.071036 0.069776 0.062171 -0.0688187 0.0842084 0.0418964 0.0534139 0.116362 0.116104 -0.103173
internal_weight=97.3736 57.2753 40.0983 30.0378 27.2375 11.5433 8.95951 3.61172 13.2656 5.41283 7.85281 5.34779 2.84012 21.5874 14.1376 2.58379 7.44975 13.9718 10.8302 8.45044 5.85365 28.555
internal_count=1497 341 1156 197 144 198 150 48 84 42 42 102 66 127 79 48 48 60 56 70 49 958
is_linear=0
shrinkage=0.1


Tree=18
num_leaves=23
num_cat=0
split_feature=0 0 0 0 0 0 0 0 0 0 0 0 0 0 0 0 0 0 0 0 0 0
split_gain=39.9054 4.7225 3.222 1.35774 0.875918 0.241313 0.341567 0.236417 0.406391 0.300695 0.212453 0.208826 0.243804 0.155241 0.141367 0.418194 0.0671651 8.98758e-05 2.32414e-09 3.55271e-15 3.55271e-15 3.55271e-15
threshold=0.51745352149009716 0.65133607387542736 0.41687354445457464 0.77149564027786266 0.59702295064926159 0.73389464616775524 0.71356800198555004 0.49072588980197912 0.46473693847656256 0.49549156427383428 0.4710096418857575 0.54611665010452282 0.57223805785179149 0.63069292902946483 0.43227526545524603 0.45161361992359167 0.6771911382675172 0.79857960343360912 0.85599651932716381 0.40684755146503454 0.38902798295021063 0.36659345030784612
decision_type=2 2 2 2 2 2 2 2 2 2 2 2 2 2 2 2 2 2 2 2 2 2
left_child=2 4 19 5 11 6 16 8 14 -9 -10 -2 -13 -6 -4 -16 -3 -5 -19 20 21 -1
right_child=1 3 7 17 13 -7 -8 9 10 -11 -12 12 -14 -15 15 -17 -18 18 -20 -21 -22 -23
leaf_value=-0.10286180639063852 0.02081920616492022 0.075182441452523549 -0.026212478449419659 0.1150758518472218 0.047331789292538992 0.083761968812285051 0.033313413938923085 -0.1096119113527228 0.030795735978391081 -0.037672345426533492 -0.026690334827565106 -0.02308742950669275 0.0096448677831136032 0.0259056257511356 -0.10286180639063845 -0.032251905717414119 0.059906337619010853 0.11434083498855259 0.11433660392658698 -0.10286180639063856 -0.10286180639063856 -0.10286180639063856
leaf_weight=22.179197445511829 4.1306930333375957 5.9199749529361778 2.4477868974208814 2.385870248079299 7.9039692878723127 5.3775030672550193 3.8387116789817801 0.96000918745994512 1.3084432259202006 1.4717591889202593 1.2638891637325285 4.4337700009345991 4.6748225390911102 5.9100905656814575 1.2982944846153261 2.369837298989296 5.601561427116394 2.1938227489590645 3.1803409308195114 0.97372086346149345 0.97372086346149345 1.785154916346072
leaf_count=820 36 38 36 21 36 38 20 12 12 36 30 24 24 24 48 24 31 20 29 36 36 66
internal_value=-0.00312869 0.0504746 -0.0835386 0.0788829 0.0205496 0.0655306 0.059148 -0.0385118 -0.0307977 -0.0660725 0.00255054 0.00216941 -0.00628816 0.038165 -0.0448239 -0.0572435 0.0677555 0.114565 0.114338 -0.102862 -0.102862 -0.102862
internal_weight=92.5829 55.5511 37.0318 28.4978 27.0533 20.7378 15.3602 11.12 8.68825 2.43177 2.57233 13.2393 9.10859 13.8141 6.11592 3.66813 11.5215 7.76003 5.37416 25.9118 24.9381 23.9644
internal_count=1497 341 1156 197 144 127 89 198 150 48 42 84 48 60 108 72 69 70 49 958 922 886
is_linear=0
shrinkage=0.1


Tree=19
num_leaves=23
num_cat=0
split_feature=0 0 0 0 0 0 0 0 0 0 0 0 0 0 0 0 0 0 0 0 0 0
split_gain=34.6336 4.37066 3.27369 1.57565 0.458118 0.241277 0.295466 0.215816 0.351239 0.268601 0.21223 0.180324 0.37544 0.253112 0.171882 0.138218 0.267863 0.210056 0.136841 6.37828e-05 1.64634e-09 7.10543e-15
threshold=0.51745352149009716 0.7245675027370454 0.41687354445457464 0.59702295064926159 0.77149564027786266 0.65133607387542736 0.6771911382675172 0.49072588980197912 0.46473693847656256 0.49951495230197912 0.74510189890861522 0.54877892136573803 0.54203885793685924 0.58012405037879955 0.4710096418857575 0.45544759929180151 0.43023262917995458 0.43568783998489385 0.62054097652435314 0.79857960343360912 0.85599651932716381 0.087827727198600783
decision_type=2 2 2 2 2 2 2 2 2 2 2 2 2 2 2 2 2 2 2 2 2 2
left_child=2 3 21 11 10 18 -7 8 15 -9 -3 12 -2 -13 -10 16 -4 -18 -5 -6 -21 -1
right_child=1 4 7 5 19 6 -8 9 14 -11 -12 13 -14 -15 -16 -17 17 -19 -20 20 -22 -23
leaf_value=-0.10258206935083106 -0.0092022020261177187 0.093242089566452857 -0.057579049131116826 0.047662131567802357 0.11343795301276177 0.070990991619908461 0.040758581412542488 -0.034239040120485099 0.027141306584462906 -0.10356422324323229 0.057694275472196271 -0.025781807945843133 0.043171719303112047 0.010311558685627623 -0.024632952005238726 -0.064489922726313278 0.038688583260441355 -0.029233018721554146 0.026995044287695193 0.11279135590404804 0.11278763643608314 -0.10258206935083135
leaf_weight=1.251397300511601 2.8645457625389081 3.5908094868063909 1.99461445212364 5.1302511692047146 2.1883922070264816 5.6565203517675382 7.5440907925367355 1.3406518846750253 1.3346700891852381 0.95844210684299458 3.1553173363208771 3.9123517870903015 2.6210913956165314 3.8597403466701508 1.2341242209076879 1.8719531893730161 0.69336931407451663 1.3262436836957929 8.5315724015235883 2.0109207555651665 2.9151806831359863 22.255242187529802
leaf_count=51 30 26 30 24 21 38 41 18 12 30 22 24 12 18 30 18 18 42 36 20 29 907
internal_value=-0.00303588 0.0468745 -0.0816741 0.0301496 0.0952855 0.0440719 0.0537133 -0.0359727 -0.0285856 -0.0631392 0.0766156 0.0019407 0.0158226 -0.00785729 0.00226743 -0.0420501 -0.0315858 -0.00591432 0.0347559 0.112989 0.112789 -0.102582
internal_weight=88.2415 53.9808 34.2607 40.1202 13.8606 26.8624 13.2006 10.7541 8.45497 2.29909 6.74613 13.2577 5.48564 7.77209 2.56879 5.88618 4.01423 2.01961 13.6618 7.11449 4.9261 23.5066
internal_count=1497 341 1156 223 118 139 79 198 150 48 48 84 42 42 42 108 90 60 60 70 49 958
is_linear=0
shrinkage=0.1


Tree=20
num_leaves=23
num_cat=0
split_feature=0 0 0 0 0 0 0 0 0 0 0 0 0 0 0 0 0 0 0 0 0 0
split_gain=30.0388 4.10256 3.31949 1.43066 0.338003 0.264467 0.3332 0.198343 0.321785 0.315772 0.225729 0.323421 0.178235 0.156692 0.188454 0.0528683 4.54783e-05 2.40842e-07 1.17131e-09 3.55271e-15 3.55271e-15 4.44089e-16
threshold=0.51745352149009716 0.73389464616775524 0.41687354445457464 0.59702295064926159 0.77149564027786266 0.65133607387542736 0.71356800198555004 0.49072588980197912 0.49549156427383428 0.46354806423187261 0.43227526545524603 0.45161361992359167 0.63558900356292736 0.54611665010452282 0.57223805785179149 0.6771911382675172 0.79857960343360912 0.44263772666454321 0.85599651932716381 0.39822725951671606 0.35416094958782202 0.36479508876800543
decision_type=2 2 2 2 2 2 2 2 2 2 2 2 2 2 2 2 2 2 2 2 2 2
left_child=2 3 19 13 -3 12 15 9 -9 10 -4 17 -5 -2 -15 -7 -6 -12 -18 20 -1 -22
right_child=1 4 7 5 16 6 -8 8 -10 -11 11 -13 -14 14 -16 -17 18 -19 -20 -21 21 -23
leaf_value=-0.1023303302589471 0.017737173961756607 0.076713037060455541 -0.020853104784053413 0.039605560146225051 0.11199755996241803 0.066963856058232379 0.02504524456398792 -0.10832406988463326 -0.029487048826424972 -0.0036977845741399092 -0.10259864287433472 -0.029603815851727174 0.015101574486393527 -0.020622177958005101 0.0082672035447863331 0.052914253149160789 0.11142699478912446 -0.10250767930102499 0.11142371561914742 -0.10233033025894717 -0.1023303302589471 -0.10233033025894711
leaf_weight=17.447148740291606 4.1846601963043204 4.8407276645302755 2.3105185478925687 9.1192193627357501 2.0042974501848221 5.4101134985685331 3.6557516455650321 0.85126984119415228 1.3213828280568121 3.5141128934919834 0.59183315187692664 1.2710153460502622 4.4009296596050254 4.3616137504577619 4.6818142533302307 5.3043236881494522 1.8406919762492178 0.5727573037147522 2.6683954074978828 1.2017168775200833 0.66762048751115743 2.002861462533474
leaf_count=784 36 38 36 42 21 38 20 12 36 48 24 18 18 24 24 31 20 24 29 54 30 90
internal_value=-0.00294032 0.0435157 -0.0797118 0.0288224 0.0967269 0.0416685 0.0511138 -0.0334915 -0.0603763 -0.0264201 -0.0432441 -0.0644851 0.0316293 0.00173748 -0.00566604 0.0600084 0.111601 -0.102554 0.111425 -0.10233 -0.10233 -0.10233
internal_weight=84.2248 52.4725 31.7522 41.1184 11.3541 27.8903 14.3702 10.4329 2.17265 8.26024 4.74612 2.43561 13.5201 13.2281 9.04343 10.7144 6.51338 1.16459 4.50909 21.3193 20.1176 2.67048
internal_count=1497 341 1156 233 108 149 89 198 48 150 102 66 60 84 48 69 70 48 49 958 904 120
is_linear=0
shrinkage=0.1


end of trees

feature_importances:
sim=448

parameters:
[boosting: gbdt]
[objective: binary]
[metric: auc]
[tree_learner: serial]
[device_type: cpu]
[data_sample_strategy: bagging]
[data: ]
[valid: ]
[num_iterations: 200]
[learning_rate: 0.1]
[num_leaves: 31]
[num_threads: 0]
[seed: 0]
[deterministic: 0]
[force_col_wise: 0]
[force_row_wise: 0]
[histogram_pool_size: -1]
[max_depth: -1]
[min_data_in_leaf: 20]
[min_sum_hessian_in_leaf: 0.001]
[bagging_fraction: 1]
[pos_bagging_fraction: 1]
[neg_bagging_fraction: 1]
[bagging_freq: 0]
[bagging_seed: 3]
[bagging_by_query: 0]
[feature_fraction: 1]
[feature_fraction_bynode: 1]
[feature_fraction_seed: 2]
[extra_trees: 0]
[extra_seed: 6]
[early_stopping_round: 0]
[early_stopping_min_delta: 0]
[first_metric_only: 0]
[max_delta_step: 0]
[lambda_l1: 0]
[lambda_l2: 0]
[linear_lambda: 0]
[min_gain_to_split: 0]
[drop_rate: 0.1]
[max_drop: 50]
[skip_drop: 0.5]
[xgboost_dart_mode: 0]
[uniform_drop: 0]
[drop_seed: 4]
[top_rate: 0.2]
[other_rate: 0.1]
[min_data_per_group: 100]
[max_cat_threshold: 32]
[cat_l2: 10]
[cat_smooth: 10]
[max_cat_to_onehot: 4]
[top_k: 20]
[monotone_constraints: ]
[monotone_constraints_method: basic]
[monotone_penalty: 0]
[feature_contri: ]
[forcedsplits_filename: ]
[refit_decay_rate: 0.9]
[cegb_tradeoff: 1]
[cegb_penalty_split: 0]
[cegb_penalty_feature_lazy: ]
[cegb_penalty_feature_coupled: ]
[path_smooth: 0]
[interaction_constraints: ]
[verbosity: -1]
[saved_feature_importance_type: 0]
[use_quantized_grad: 0]
[num_grad_quant_bins: 4]
[quant_train_renew_leaf: 0]
[stochastic_rounding: 1]
[linear_tree: 0]
[max_bin: 255]
[max_bin_by_feature: ]
[min_data_in_bin: 3]
[bin_construct_sample_cnt: 200000]
[data_random_seed: 1]
[is_enable_sparse: 1]
[enable_bundle: 1]
[use_missing: 1]
[zero_as_missing: 0]
[feature_pre_filter: 1]
[pre_partition: 0]
[two_round: 0]
[header: 0]
[label_column: ]
[weight_column: ]
[group_column: ]
[ignore_column: ]
[categorical_feature: ]
[forcedbins_filename: ]
[precise_float_parser: 0]
[parser_config_file: ]
[objective_seed: 5]
[num_class: 1]
[is_unbalance: 0]
[scale_pos_weight: 1]
[sigmoid: 1]
[boost_from_average: 1]
[reg_sqrt: 0]
[alpha: 0.9]
[fair_c: 1]
[poisson_max_delta_step: 0.7]
[tweedie_variance_power: 1.5]
[lambdarank_truncation_level: 30]
[lambdarank_norm: 1]
[label_gain: ]
[lambdarank_position_bias_regularization: 0]
[eval_at: ]
[multi_error_top_k: 1]
[auc_mu_weights: ]
[num_machines: 1]
[local_listen_port: 12400]
[time_out: 120]
[machine_list_filename: ]
[machines: ]
[gpu_platform_id: -1]
[gpu_device_id: -1]
[gpu_use_dp: 0]
[num_gpu: 1]

end of parameters

pandas_categorical:[]
